clear -0.081023 -0.29179 0.052021 -0.13324 0.028162 -0.0031446 -0.17156 0.063324 0.16568 -2.1722 -0.14127 0.087891 -0.2298 0.069017 0.21673 0.36556 -0.39979 -0.15506 0.099728 0.202 0.16989 0.14807 0.10938 -0.17141 -0.7258 -0.13189 -0.052768 -0.26383 -0.13189 -0.11408 0.081757 0.14773 -0.24342 0.0076364 -1.0992 0.13661 0.19262 -0.30012 0.031524 0.11439 -0.10854 0.21089 -0.037365 0.23449 0.054638 0.21505 0.023071 0.20918 -0.08606 -0.078589 -0.26945 -0.040802 -0.042601 -0.12093 -0.33614 0.25624 -0.35266 -0.17224 0.31018 0.6426 -0.036072 0.1558 0.26609 0.17298 -0.08158 0.0085636 0.13196 -0.11876 -0.19205 -0.32204 -0.092694 -0.19274 0.0056832 0.17194 0.24011 0.014739 0.091188 0.45903 0.0047753 -0.18136 -0.16434 0.012617 0.42791 0.075318 -0.042848 -0.055952 -0.071895 0.086806 0.078092 0.20169 -0.34189 -0.01975 -0.44579 -0.093254 0.23684 0.098079 -0.0018186 -0.13013 0.054252 -0.68408 0.21378 -0.084742 -0.12383 0.36645 -0.46434 0.56799 0.22341 0.31607 -0.23559 0.033889 0.062509 -0.31468 0.27684 -0.13729 -0.027181 0.17143 -0.35535 0.14426 0.14137 -0.27987 0.051007 0.1689 0.48614 0.43247 -0.31014 -0.2273 -0.17253 0.50221 -0.29023 -0.16833 -0.027586 0.25614 0.096051 0.19145 -0.15576 0.50767 0.0064827 -0.047304 0.47358 -0.029665 -0.095882 0.064574 0.1247 -0.3439 -0.59591 -0.17307 0.30627 0.16351 -0.21709 -0.13142 -0.029781 0.079412 0.36018 -0.068721 0.367 0.26454 0.1306 -0.34602 0.22326 0.22999 0.14122 -0.3084 0.22239 -0.13701 0.24538 0.10902 0.33084 0.052159 -0.54817 0.32921 0.33889 -0.060382 -0.16611 -0.26388 0.13997 -0.15486 -0.05013 -0.089628 -0.0080954 0.13155 -0.019735 0.25758 0.37509 -0.012096 -0.49247 0.13436 -0.21072 -0.13763 0.24047 0.13328 -0.043418 0.0070651 0.30496 -0.11184 0.68017 -0.65417 -0.39198 0.075546 -0.2043 0.041099 0.84586 -0.3361 -0.26385 -0.39417 -0.25468 -0.095349 0.19947 -0.30772 -0.53846 0.18258 -0.091379 -0.27183 0.10918 -0.042102 -0.25614 -0.039694 0.34987 -0.24526 -0.011983 -0.024231 0.62785 -0.16641 0.026109 0.029096 -0.16937 0.25329 -0.12066 0.023087 0.16152 -0.14058 0.044846 0.4533 0.34099 -0.028432 -0.39407 -0.068924 -0.29128 -0.012954 0.048176 -0.090455 -0.0098771 -0.022352 0.091535 -0.084673 -0.43955 -0.25237 0.79719 0.21526 0.0019634 -0.10022 -0.075669 -0.25113 -0.12675 0.12179 0.25892 0.026661 -0.38419 -0.18566 -0.15325 0.44484 -0.088815 0.10119 0.0060884 0.293 -0.415 0.26712 0.033683 -0.42317 0.22025 -0.027351 0.40923 -0.013339 -0.29543 0.37699 -0.019656 -0.082896 -1.5198 0.2961 0.81263 -0.18199 0.59082 0.007938 0.2309 0.23573 0.24941 -0.18754 -0.04029 0.17258 0.1948 0.131 -0.21552 0.016352 0.62256 0.41283 0.40387 -0.062911 -0.093159 -0.078137 -0.30083 -0.035913
color 0.10128 0.37482 0.30014 -0.26383 -0.37113 -0.083357 -0.39519 0.35244 0.6535 -1.1857 0.45091 -0.20917 0.035723 0.1746 0.50753 -0.6104 -0.024432 -0.24467 -0.45203 -0.28502 -0.5818 0.065485 -0.10396 0.30202 0.29087 -0.42761 0.19351 0.27258 -0.0905 0.034498 -0.22288 0.28035 -0.94826 0.23702 -0.46562 0.6679 -0.11351 -0.59047 -0.071785 0.34561 0.48239 0.010042 0.48368 -0.43583 -0.17677 -0.32006 0.06413 0.25837 -0.02077 -0.55219 0.24272 -0.0060362 0.88624 -0.61702 -0.31241 0.44219 0.03878 -0.34783 0.059627 -0.20394 -0.16635 0.34057 0.27732 -0.20071 0.22136 0.033656 0.25519 -0.71759 0.59246 -0.39131 0.078483 -0.34512 0.13517 0.018654 -0.23074 -0.020775 -0.052596 0.24774 0.082615 -0.51838 -0.22803 0.05158 -0.36148 -0.37869 0.28638 0.4931 -0.16661 -0.57327 0.097738 0.39687 -0.53528 -0.060176 -0.20987 0.026438 -0.0061701 0.50598 -0.15228 -0.23549 0.76071 -0.65455 0.010678 -0.25272 0.18724 0.28088 -0.056374 0.166 0.33658 0.72852 -0.31306 0.4658 0.19081 0.49662 0.62716 0.13877 -0.13391 -0.089517 -0.285 1.0696 -0.50994 -0.4648 0.17421 -0.037625 0.29036 -0.10921 -0.44227 -0.0065217 0.096179 1.0732 -0.18803 0.65529 -0.77696 0.47979 0.10449 0.62265 -0.48421 0.065505 -0.23458 -0.092333 0.43569 0.50791 -0.044604 0.4267 -0.5278 -0.74269 0.16208 -0.032621 -0.47984 0.090179 0.1562 0.50488 0.24824 0.27471 0.14865 -0.88851 0.27357 -0.34559 0.026484 -0.59118 0.093717 0.26801 -0.44951 -0.17635 0.098389 0.17006 0.27285 0.22133 -0.69149 0.90296 -0.61754 0.44847 -0.29316 -0.10674 -0.65523 0.42753 0.26357 -0.63362 0.23919 -0.18964 -0.25741 -0.43683 -0.14882 -0.053056 0.098907 0.12516 -0.72372 -0.45309 1.1951 -0.18891 -0.10088 0.1243 0.19803 0.49477 -0.078666 0.11313 0.17787 0.24451 -0.19595 0.20943 -0.43499 -0.031726 0.97577 -0.2263 -0.29298 -0.096537 0.62679 0.035744 -0.036518 0.92572 -0.51975 0.15616 0.15558 -0.47585 0.10217 0.2433 0.24994 0.74618 0.93024 -0.31429 0.73309 -0.0083595 0.038293 -0.30821 0.098766 -0.17138 0.12951 0.11591 0.31577 1.0451 0.10801 -0.22721 0.28619 -0.0064471 0.47781 -0.43316 -0.013666 -0.32044 0.17759 -0.093118 -0.3837 -0.0080987 -0.021307 0.11977 -0.097659 0.13685 -0.90837 -0.32364 -0.43643 -0.31941 0.036445 -0.30851 -0.22349 -0.30946 -0.34906 -0.034457 0.149 0.11928 0.014202 0.28047 0.29266 -0.16519 0.048922 -0.18524 0.28772 -0.19493 -0.19723 -0.63853 -0.14792 0.71652 -0.13648 0.28001 -0.47472 -0.20826 0.00059512 -0.090139 -0.27903 0.95811 -1.463 0.26034 -0.3034 0.14864 0.09845 0.22587 -0.4738 -0.12025 0.70378 0.39075 -0.32066 0.0606 0.058768 0.46871 0.28657 -0.62881 -0.3641 0.14507 -0.33016 -0.18622 0.15681 0.34118 0.55805 -0.35492
haze -0.0061289 -0.2702 0.16559 -0.29621 -0.66216 -0.1756 0.46686 1.0362 -0.20692 -0.36097 0.98615 0.32297 -0.55094 -0.36163 -0.27046 0.052225 -0.10079 0.22536 -0.095491 0.17188 0.058372 0.083556 -0.28255 0.12623 -0.0094164 -0.028727 -0.20589 -0.3932 -0.2935 -0.36104 1.0595 0.14423 -0.311 -0.20573 0.11827 -0.0048368 -0.8324 -0.10389 0.34491 0.34006 0.10354 0.11593 0.47379 -0.1042 0.38523 -0.57589 0.027253 -0.44913 -0.52822 -0.44094 0.71219 -0.12278 0.034288 -0.6935 -0.57852 0.33917 0.35018 -0.30193 0.55504 0.085603 -0.21189 -0.51958 -0.17589 -0.13369 0.2976 -0.26048 0.068146 0.62144 0.3416 -0.54399 -0.23937 -0.34802 -0.31469 -0.59554 -0.25011 -0.11644 0.19993 -0.1636 0.24289 -0.0022965 0.3064 -0.26188 0.27166 0.1962 0.37527 -0.22408 0.52979 0.59141 0.035196 0.10632 -0.28318 0.18766 -0.12253 0.41932 -0.64713 0.26068 0.67209 -0.23333 0.030945 -0.15135 0.61662 -0.0025061 -0.58374 0.51866 -0.89244 1.0056 0.15919 0.29183 -0.059984 0.10701 -0.32101 -1.0921 -0.050394 -0.074584 0.56258 -0.5915 0.048547 0.085668 -0.39964 -0.40997 0.093632 -0.22538 -0.83102 -0.051418 -0.31192 0.36056 -0.028854 -0.046907 0.09394 0.012504 0.34555 0.56564 0.48111 0.092143 0.82492 -0.20086 -0.27718 0.9004 0.38921 0.028667 0.78904 0.44698 -0.26892 0.073712 -0.73296 -0.46286 0.53386 0.53514 0.04207 -0.11448 0.27771 0.080703 -0.017482 0.43225 0.047742 -0.095399 -0.063173 -0.36341 0.2948 0.15311 -0.55934 -0.88294 0.62005 -0.23936 0.51953 -0.49463 0.41669 0.61169 -0.20471 -0.0056962 -0.29331 0.46269 0.084808 -0.049355 -0.64697 -0.85777 0.34718 -0.16176 0.14756 -0.65658 -0.54259 -0.13124 -0.88851 0.070637 -0.84926 -0.69345 0.4024 -0.5683 -0.68142 -0.1402 -0.36857 0.36013 -0.49769 -0.17478 0.77214 -0.23962 0.32951 1.0984 -0.00011441 0.9649 -0.13312 0.64326 -0.037091 0.35672 0.025156 0.046782 0.19764 -0.22757 -0.39887 -0.3045 -0.45283 -0.0045182 0.032546 -0.076483 0.72189 -0.038917 1.0621 -0.55688 0.56429 0.11264 0.40465 -0.53146 0.16851 0.69236 -0.24456 0.038704 0.69151 0.16591 -0.43451 0.14115 0.84069 0.29081 -0.31053 -0.6849 -0.27188 -0.32813 0.57882 0.13779 0.36621 -0.45935 0.27899 -0.32315 -0.5743 0.19837 0.0046648 0.18459 0.43369 0.22359 0.16652 -0.081114 -0.54539 -1.0103 -0.14539 0.12021 0.078636 -0.26667 -0.65403 0.4096 0.07257 0.036639 0.21757 0.25738 0.51675 -0.031326 -0.3869 0.012763 -0.45692 0.13828 -0.48614 -0.53757 0.50268 0.47865 -0.049528 -0.032281 -0.4486 0.036258 -0.12295 -0.46811 -0.019014 0.035839 -0.55749 0.018281 -0.88963 -0.024676 -0.19482 -0.19364 0.0069875 0.12679 -0.37379 -0.34094 -0.051568 0.55404 -0.29656 0.26045 0.50872 -0.37399 0.20334 0.70298 -0.3271 -0.24116
dark -0.0064302 -0.29674 0.35981 -0.54962 -0.4008 0.010707 -0.18259 0.42693 0.44285 -1.0959 0.38935 -0.30829 -0.32219 0.34735 -0.52852 -0.09884 -0.12482 -0.16507 -0.064943 0.10733 0.14129 0.40822 0.20244 0.5135 -0.3451 -0.40003 0.82865 -0.34831 -0.60657 0.39694 -0.1215 0.31267 -0.50513 -0.35004 -0.53586 0.75494 -0.026773 0.035648 -0.26498 0.17224 0.23714 0.091504 -0.09216 -0.0078587 0.35823 -0.045178 0.050611 -0.34293 -0.54741 -0.72314 -0.22143 0.15085 0.45553 -0.25635 0.18937 -0.0076388 -0.037807 0.0049814 0.63607 -0.3111 -0.49454 -0.075758 0.23384 0.13505 -0.28856 -0.63757 0.045583 0.057695 0.47397 -0.2769 0.41771 0.23792 0.021637 -0.24488 -0.080173 0.015521 -0.33607 -0.20192 0.44825 -0.74345 0.41346 0.22507 -0.020226 0.017268 0.1417 0.22055 0.52765 0.40904 -0.012775 0.48418 -0.16043 -0.10325 0.14362 0.55451 -0.57626 0.6269 0.21159 0.22983 0.90964 -0.53968 0.52683 -0.31243 -0.36408 0.42524 -0.37982 -0.10622 0.29334 0.20077 -0.29372 0.1613 -0.032312 0.11737 0.46715 -0.12086 0.04327 0.16585 -0.058783 0.097978 -0.32228 -0.7821 -0.36032 -0.53919 -0.17319 0.4862 -0.13897 0.20762 0.1501 0.36749 -0.042506 0.0082642 0.063534 0.16671 -0.2048 0.44851 -0.079446 -0.070851 -0.72391 0.4584 -0.38344 -0.14331 0.49419 0.084856 -0.4216 0.21926 0.012506 -0.32383 -0.20159 -0.085352 0.024485 -0.16466 -0.058455 0.14899 -0.44241 -0.36524 0.94714 -0.71897 0.27422 -0.27477 0.26441 -0.053881 0.067082 -0.52598 0.46311 0.0066459 0.028148 0.19917 -0.61978 0.70044 -0.30448 -0.36349 0.29127 0.19367 -0.047151 0.13784 0.035689 -0.23524 -0.10503 0.11028 -0.16072 -0.7578 -0.20803 0.15349 0.053653 0.044606 0.12322 -0.32658 0.94238 -0.16637 -0.12629 0.0089886 -0.24307 0.071343 0.086687 0.15063 -0.030775 -0.29188 -0.88 0.016451 -0.60946 0.30986 1.5628 0.039188 0.027822 -0.13647 0.1896 -0.43337 0.038026 0.24019 -0.41954 -0.41614 0.45342 -0.17287 0.10475 0.0058724 0.086617 0.024677 1.285 -0.29669 0.52569 0.0579 0.65524 -0.34236 -0.11743 -0.16651 -0.35523 -0.21196 -0.049964 -0.56214 -0.47408 -0.35619 0.023098 -0.45505 -0.23398 -0.14746 -0.14465 0.043546 -0.26003 0.054586 -0.80637 -0.096423 0.29418 -0.035749 -0.31023 0.12394 -0.83188 -0.12234 0.14982 -0.15434 -0.096629 -0.16492 -0.22876 0.23581 0.1287 0.21391 0.30684 0.08327 0.27972 -0.25482 0.013814 0.48532 0.59062 -0.292 0.70981 -0.43401 -0.46057 0.082056 -0.21479 -0.36248 -0.30657 0.40101 -0.22998 0.17923 0.15718 -0.018278 -0.44037 0.63622 -1.1184 0.13394 0.011379 -0.32143 -0.29397 0.52465 -0.30155 -0.16975 0.094842 0.54929 -0.67436 0.39682 0.16322 0.063068 0.20016 0.61606 -0.86499 0.81414 -0.044645 0.17699 -0.13683 0.58486 -0.1911 0.66563
noise 0.33327 0.54282 -0.32797 0.14668 -0.4601 -0.83892 0.43489 1.007 0.13423 -1.217 -0.036212 0.079597 0.4298 -0.18508 0.5025 0.05795 -0.42941 0.022009 -0.17467 0.71969 0.20518 0.53095 -0.07599 -0.027727 -0.81769 0.013633 0.061513 -0.43359 0.029141 0.17613 -0.52888 -0.30604 -0.76853 0.24742 -0.29867 0.12061 -0.52829 -0.58473 0.14856 1.1007 0.27004 0.46332 0.036575 0.12465 -0.019074 0.66751 0.14941 -0.27662 0.32913 0.32554 0.78022 0.21062 -0.31529 -0.6787 -0.43584 0.36945 0.05649 -0.6436 0.2919 0.65208 -0.34825 -0.37235 0.52169 -0.16294 -0.40822 -0.031979 0.12338 0.25101 0.42168 0.4982 0.37147 -0.4744 -0.11948 0.21735 -0.33809 0.46483 -0.14959 0.37587 0.073159 0.14919 -0.36102 -0.62063 0.93523 -0.22636 -0.085072 0.16358 0.70155 0.13529 -0.38198 -0.057163 0.33994 0.14132 -0.20903 -0.26006 -0.22251 -0.27183 0.16517 -0.46501 0.25859 -0.4744 -0.51798 -0.017574 0.20308 -0.14515 -0.79116 -0.019523 -0.2707 -0.1527 -0.48005 0.71545 -0.1621 -0.45314 -0.32034 0.25888 0.012736 -0.042484 0.60209 0.22584 -0.90188 -0.057284 0.025003 0.12551 -0.3435 -0.066985 -0.21457 -0.58167 0.44463 0.007311 -0.071183 0.51991 0.17217 0.16751 0.55635 -0.48149 0.028536 0.27768 0.20717 -0.11555 0.038174 -0.047264 -0.23996 0.20713 0.15787 0.23009 0.22809 -0.51848 0.81113 0.32634 -0.089937 -0.15276 0.066978 -0.34479 -0.21656 0.022235 0.55358 0.15172 0.84389 0.27484 -0.37212 -0.493 0.043608 -0.26822 -0.16319 -0.59068 0.76666 -0.098409 -0.087605 0.51483 0.023345 0.078454 0.24989 0.22101 0.8804 0.19469 -0.48146 -0.79903 -0.036428 0.11267 -0.45181 0.15361 -0.3283 -0.21725 -0.24597 0.30056 -1.0191 -0.45725 0.88839 -0.26096 -0.051592 0.39588 -0.07472 -0.54231 -0.40615 -0.070006 -0.4224 -0.41141 -0.023329 0.39713 0.060698 -0.30862 0.043322 0.82042 0.95085 -0.26433 0.21346 0.14932 -0.28378 0.17088 0.24808 -0.032694 -0.16683 0.17472 -0.097761 -0.071396 0.038804 -0.4467 0.25923 0.10892 -0.19312 0.11672 -0.03974 -0.13231 0.24697 -0.47985 0.16515 -0.04411 0.70995 0.10376 0.027549 -0.71154 0.06719 0.17349 -0.073867 -0.32907 0.55225 -0.30369 0.24782 -0.35812 -0.10018 -0.17599 0.52588 -0.16025 -0.32076 0.46748 -0.57959 0.011094 -0.082057 -0.044784 -0.47164 -0.14753 -0.0090988 -0.21854 -0.17217 -0.35491 -0.064475 0.76045 0.34278 -0.34118 -0.064788 -0.066599 0.40473 -0.59595 0.23027 -0.094722 0.022227 0.21793 0.26402 0.33713 -0.071247 -0.58242 0.59274 0.25055 -0.092372 -0.63985 -0.63599 0.61373 -1.63 0.39317 0.22581 0.010253 -0.61808 0.45418 -0.16935 0.40257 -0.19402 0.20237 -0.0028498 -0.20098 -0.22269 -0.4371 0.039319 0.30732 -0.70924 0.21763 0.61037 -0.26642 -0.083561 0.82257 0.14271 0.48729